digraph Tree {
node [shape=box] ;
0 [label="X[5] <= 97.5\ngini = 0.42\nsamples = 10\nvalue = [7, 3]"] ;
1 [label="X[5] <= 80.0\ngini = 0.5\nsamples = 6\nvalue = [3, 3]"] ;
0 -> 1 [labeldistance=2.5, labelangle=45, headlabel="True"] ;
2 [label="gini = 0.0\nsamples = 3\nvalue = [3, 0]"] ;
1 -> 2 ;
3 [label="gini = 0.0\nsamples = 3\nvalue = [0, 3]"] ;
1 -> 3 ;
4 [label="gini = 0.0\nsamples = 4\nvalue = [4, 0]"] ;
0 -> 4 [labeldistance=2.5, labelangle=-45, headlabel="False"] ;
}
